FANN_FLO_2.1
num_layers=3
learning_rate=0,700000
connection_rate=1,000000
network_type=0
learning_momentum=0,000000
training_algorithm=2
train_error_function=1
train_stop_function=0
cascade_output_change_fraction=0,010000
quickprop_decay=-0,000100
quickprop_mu=1,750000
rprop_increase_factor=1,200000
rprop_decrease_factor=0,500000
rprop_delta_min=0,000000
rprop_delta_max=50,000000
rprop_delta_zero=0,100000
cascade_output_stagnation_epochs=12
cascade_candidate_change_fraction=0,010000
cascade_candidate_stagnation_epochs=12
cascade_max_out_epochs=150
cascade_min_out_epochs=50
cascade_max_cand_epochs=150
cascade_min_cand_epochs=50
cascade_num_candidate_groups=2
bit_fail_limit=3,49999994039535522461e-01
cascade_candidate_limit=1,00000000000000000000e+03
cascade_weight_multiplier=4,00000005960464477539e-01
cascade_activation_functions_count=10
cascade_activation_functions=3 5 7 8 10 11 14 15 16 17 
cascade_activation_steepnesses_count=4
cascade_activation_steepnesses=2,50000000000000000000e-01 5,00000000000000000000e-01 7,50000000000000000000e-01 1,00000000000000000000e+00 
layer_sizes=4 17 5 
scale_included=0
neurons (num_inputs, activation_function, activation_steepness)=(0, 0, 0,00000000000000000000e+00) (0, 0, 0,00000000000000000000e+00) (0, 0, 0,00000000000000000000e+00) (0, 0, 0,00000000000000000000e+00) (4, 5, 9,99999977648258209229e-03) (4, 5, 9,99999977648258209229e-03) (4, 5, 9,99999977648258209229e-03) (4, 5, 9,99999977648258209229e-03) (4, 5, 9,99999977648258209229e-03) (4, 5, 9,99999977648258209229e-03) (4, 5, 9,99999977648258209229e-03) (4, 5, 9,99999977648258209229e-03) (4, 5, 9,99999977648258209229e-03) (4, 5, 9,99999977648258209229e-03) (4, 5, 9,99999977648258209229e-03) (4, 5, 9,99999977648258209229e-03) (4, 5, 9,99999977648258209229e-03) (4, 5, 9,99999977648258209229e-03) (4, 5, 9,99999977648258209229e-03) (4, 5, 9,99999977648258209229e-03) (0, 0, 0,00000000000000000000e+00) (17, 5, 9,99999977648258209229e-03) (17, 5, 9,99999977648258209229e-03) (17, 5, 9,99999977648258209229e-03) (17, 5, 9,99999977648258209229e-03) (0, 0, 0,00000000000000000000e+00) 
connections (connected_to_neuron, weight)=(0, 2,83511018753051757812e+00) (1, -3,82659568786621093750e+01) (2, -1,03578209877014160156e-01) (3, 1,87360203266143798828e+00) (0, -4,27123626708984375000e+02) (1, -1,36429840087890625000e+02) (2, 6,46034622192382812500e+01) (3, 1,62281661987304687500e+02) (0, 3,97181427001953125000e+02) (1, 1,63174636840820312500e+02) (2, -5,02972602844238281250e+01) (3, -6,50319900512695312500e+01) (0, 2,40260124206542968750e+01) (1, 3,08950948715209960938e+00) (2, -4,10375976562500000000e+00) (3, -5,77370595932006835938e+00) (0, -1,18016342163085937500e+02) (1, -9,97862014770507812500e+01) (2, 9,09548400878906250000e+02) (3, -4,01926765441894531250e+01) (0, 4,40726074218750000000e+02) (1, -6,81083984375000000000e+02) (2, 5,30466117858886718750e+01) (3, 2,38748073577880859375e+01) (0, -3,07744007110595703125e+01) (1, -1,68167449951171875000e+02) (2, 6,19400558471679687500e+01) (3, -2,52470552921295166016e-01) (0, -6,54078531265258789062e+00) (1, -2,84295120239257812500e+01) (2, 1,11354360580444335938e+01) (3, 3,86244201660156250000e+01) (0, 1,24295120239257812500e+01) (1, -6,89948272705078125000e+01) (2, -1,49052608013153076172e+00) (3, -9,07644653320312500000e+00) (0, 1,50197814941406250000e+02) (1, 9,71891326904296875000e+01) (2, 1,69632278442382812500e+02) (3, -3,05404083251953125000e+02) (0, -3,72986083984375000000e+02) (1, -2,12102622985839843750e+01) (2, 5,93609130859375000000e+02) (3, 3,15398040771484375000e+02) (0, 1,17701042175292968750e+02) (1, -3,09307664632797241211e-01) (2, 1,49999560546875000000e+03) (3, 3,61226562500000000000e+02) (0, 4,72823600769042968750e+01) (1, 7,30311536788940429688e+00) (2, 1,15336394309997558594e+00) (3, -2,06710662841796875000e+01) (0, 4,39708099365234375000e+02) (1, -6,26781616210937500000e+02) (2, 8,06677795410156250000e+02) (3, -4,06565643310546875000e+02) (0, 2,96660247802734375000e+02) (1, 1,75869583129882812500e+02) (2, 1,36513717651367187500e+02) (3, -1,74020843505859375000e+02) (0, -4,07196136474609375000e+02) (1, -1,30843127441406250000e+03) (2, 3,36383209228515625000e+01) (3, -5,95173339843750000000e+01) (4, -2,77201538085937500000e+02) (5, -1,17925209045410156250e+02) (6, -5,18196449279785156250e+01) (7, 9,60827713012695312500e+01) (8, 9,73514480590820312500e+01) (9, 1,05609039306640625000e+02) (10, -1,64405960083007812500e+02) (11, -2,29988899230957031250e+01) (12, -9,87814331054687500000e+01) (13, 7,72925872802734375000e+01) (14, 3,63395271301269531250e+01) (15, -5,06126880645751953125e+00) (16, 2,67774887084960937500e+01) (17, 4,42997245788574218750e+01) (18, -9,64021682739257812500e+01) (19, -7,13265478610992431641e-01) (20, 7,88076543807983398438e+00) (4, -8,03832702636718750000e+01) (5, 2,40030151367187500000e+02) (6, 1,26039756774902343750e+02) (7, 5,78585571289062500000e+02) (8, 8,93912410736083984375e+00) (9, -7,49801864624023437500e+01) (10, 1,05130569458007812500e+02) (11, 6,47826492786407470703e-01) (12, 2,20089721679687500000e+01) (13, -1,71781005859375000000e+02) (14, 5,53621940612792968750e+01) (15, -3,71971815824508666992e-01) (16, 4,73059173583984375000e+02) (17, 4,68524398803710937500e+01) (18, -2,11075763702392578125e+01) (19, 1,42399383544921875000e+02) (20, 1,83612670898437500000e+01) (4, 9,08634796142578125000e+01) (5, -7,62439270019531250000e+01) (6, -7,67565917968750000000e+01) (7, -6,72269226074218750000e+02) (8, -8,55501480102539062500e+01) (9, 4,49906806945800781250e+01) (10, -3,05578410625457763672e-01) (11, 1,25573036193847656250e+02) (12, 1,11775074005126953125e+01) (13, 6,85769882202148437500e+01) (14, -5,82417297363281250000e+01) (15, 2,70152950286865234375e+01) (16, -2,47627136230468750000e+02) (17, -8,70756435394287109375e+00) (18, 1,33505920410156250000e+02) (19, 7,54735851287841796875e+00) (20, 4,89419555664062500000e+01) (4, 1,73688983917236328125e+01) (5, -1,87317240238189697266e+00) (6, 1,87156569957733154297e+00) (7, -1,00856657028198242188e+01) (8, -8,17589340209960937500e+01) (9, 4,88026320934295654297e-01) (10, 5,97406208515167236328e-01) (11, 4,64653301239013671875e+00) (12, -9,29483318328857421875e+00) (13, 1,44508802890777587891e+00) (14, -9,54757690429687500000e+00) (15, 1,79467754364013671875e+01) (16, -1,05383005142211914062e+01) (17, -7,56476898193359375000e+01) (18, -1,86733281612396240234e+00) (19, -2,68021345138549804688e+00) (20, 1,45028137207031250000e+02) 
